//Numpy array shape [16, 64]
//Min -1.566781044006
//Max 1.567497730255
//Number of zeros 0

#ifndef W2_H_
#define W2_H_

#ifndef __SYNTHESIS__
fc1_weight_t w2[1024];
#else
fc1_weight_t w2[1024] = {0.0019161820, -0.0013606326, -0.1662484258, 0.0036318733, 0.1577505618, -0.0039928043, -0.0621031970, 0.0562365502, -0.0097077172, 0.0023888873, -0.0973375812, 0.2847704589, -0.0000791344, 0.0000073251, 0.0086345412, 0.2453271747, -0.1321023256, 0.0000194024, 0.5738416910, 0.5118252635, -0.0354919471, -0.0000697791, 0.0397882685, -0.0864807144, -0.0006672172, 0.0000414531, -0.3706465364, -0.0462489314, 0.0005895989, 0.1041836441, 0.0005555185, 0.3752408028, -0.1974875778, 0.0786690414, 0.0008833641, 0.0002402638, 0.0039740605, 0.0000188090, -0.0965703577, -0.0716986805, 0.0001721824, -0.1018197760, -0.0467383191, -0.0054328619, 0.0591296852, -0.0097988406, 0.0222000014, -0.6158881187, -0.0000393214, -0.1616899967, 0.2080919147, -0.0199087299, -0.0288590733, -0.0005955489, 0.0156328157, 0.1867206246, 0.0000159841, -0.0015316022, 0.1620260030, 0.3161528111, -0.3562900126, 0.2839945853, -0.0098275403, -0.1026105359, -0.0034380993, 0.0006436782, -0.0009086549, 0.0757661015, 0.1193495542, 0.0554012954, -0.0514538214, 0.8816915751, 0.0110641010, -0.0149536673, -0.0467839800, 1.1145999432, 0.0000234660, -0.0002337012, 0.0003888941, 0.1460592002, 0.0048300680, -0.0001332966, -0.0009307286, -0.0332260802, 0.0987302139, 0.0000609789, -0.0006700207, -0.1667529941, 0.6525711417, -0.0000469955, -0.1089257896, -0.0145484721, 0.0068794042, 0.0668369308, 0.0067712972, 0.4571836591, -0.0793855563, 0.0682270676, 0.1054610983, 0.0001343518, 0.0206358172, -0.0000136883, 0.0010723288, 0.0317795686, -0.0002512057, -0.0516288467, -0.0806653500, -0.0336532332, 0.0170311704, 0.2873251438, 0.0004793990, -0.2744587958, 0.0000041836, -0.3198865056, 0.1200587675, -0.0685574338, 0.0035398332, 0.1592908800, 0.0108947363, 0.0649752468, 0.0001425026, 0.0018990691, 0.0048762099, 0.0107259080, -0.4571443796, 0.0025613443, 0.0514046438, 0.0021649527, 0.0024554073, -0.0020946257, 0.2754932344, -0.0038002799, -0.0505882464, -0.0094923321, 0.0043828087, -0.0043746186, 0.0016740499, 0.3449270427, -0.5697495341, 0.3379179537, 0.0001418000, -0.0001085849, 0.0052143200, -0.0015406018, 0.6841090322, -0.0000738276, 0.0001226981, -0.4367803037, -0.0026334864, -0.0000084640, -0.0008558597, 0.0013248208, -0.0057319310, 0.0000359695, 0.5182104111, -0.0048379488, -0.1051199287, -0.4739031196, -0.0002770749, -0.0283278935, 0.3154647052, 0.5080305934, 0.4720745385, 0.0000161545, 0.1559491903, 0.0000298370, -0.5749317408, -0.0042228820, 0.0000302338, -0.1242504343, 0.0011995786, -0.0282745771, -0.0008419525, -0.1717502773, -0.0019533616, -0.0054040309, -0.0001159541, -0.0051301168, 0.1067607924, 0.3324750960, -0.2795270681, 0.0015891957, -0.4021331966, -0.0425026789, 0.0001207821, 0.0001839514, 0.0127661731, 0.6120308042, -0.2638438046, -0.0046990109, 0.1314489394, -0.2138401270, 0.0214429162, -0.0023601390, -0.0008894581, -0.2443349957, -0.7011166811, 0.0183311440, -0.1456800699, 0.0013321502, -0.0012311594, 0.0002349495, -1.0875103474, -0.3044103980, 0.0001131689, -0.0000296055, 0.0009804643, -0.1085845307, 0.3180251718, -0.0000266708, 0.0004181671, -0.2833073735, 0.3320356011, 0.0001726015, -0.0536731035, 0.0005652980, -0.0660025552, 0.0000350858, -0.2236451954, 0.1394388527, 0.6604710221, -0.0274698325, -0.2968176603, -0.1276663244, 0.2135264426, -0.5558084846, 0.5697939396, 0.0000589354, 0.6071029902, -0.0000145580, -0.2140420675, -0.0034068578, 0.0000708441, -0.5618305802, 0.3242778480, -0.1895253807, -0.0023341929, 0.1422410011, -0.5196887255, -0.0068762777, 0.0000488325, -0.1146165058, 0.0016284563, 0.1610721946, -0.3945498765, -0.0054968828, -0.6006856561, -0.5136295557, 0.0002089793, -0.0002333779, -0.0016677276, 0.1190620214, 0.0012278400, -0.0042117569, 0.0570197701, -0.9069762230, 0.0004550567, -0.0025516162, 0.1738675237, -0.3035409451, -0.3710320294, -0.0053840438, 0.0032629711, -0.0523764491, 0.0036532872, 0.2612799704, -0.1182733625, 0.1789063215, -0.0002587002, -0.0000603663, 0.0462050624, 0.1433349401, 0.0981704369, -0.0000175150, -0.0000315810, -0.3613258600, -0.0012489068, -0.0000330188, -0.0029207899, 0.1880032867, -0.0034240817, 0.0001209365, 0.0000491574, -0.0013629872, -0.2544012666, -0.0887965038, 0.1073657945, -0.0009141242, 0.4370248616, 0.4962849021, 0.1986410767, -0.0000072584, 0.0006878931, 0.0000360605, -0.4770265818, 0.0224804450, 0.0000351411, -0.1252183169, -0.0356280245, 0.0013344844, 0.2525278032, -0.1427219361, -0.0025665807, -0.2022751272, -0.0000008933, -0.0935452133, 0.1190728098, 0.2474596053, -0.0015715766, -0.0027477420, -0.4996898174, -0.0013959936, 0.0001197833, -0.0005616664, 0.0933792740, 0.5582166910, -0.0059453142, -0.0020001798, -0.0043786415, 0.0009673131, 0.0027086658, -0.0008700689, -0.0000808720, -0.0002708350, -0.0000110451, -0.0095699597, 0.0043339692, -0.0028599710, 0.0055307993, -0.0414482504, 0.0008853002, 0.0014079593, -0.0000023243, -0.0000593966, -0.0910549015, -0.0036683916, -0.0211747251, 0.0000527360, -0.0017738228, 0.0002371848, 0.0008769395, 0.0000471912, -0.0003990209, -0.0026378362, 0.0149631053, -0.0000157881, 0.0055598286, -0.0384846702, -0.0002239187, -0.2461073250, -0.0002951261, -0.0035740037, -0.5631945729, -0.1772649437, -0.0003062265, 0.0001591955, 0.0869806707, -0.0000023817, -0.0589051470, -0.0039959047, 0.0000749155, 0.0011475598, 0.0509525053, 0.0018860943, -0.2433377504, -0.0010355299, -0.0001764143, 0.0001992268, -0.0001081894, -0.0030962687, -0.1238988042, 0.0000455462, 0.0002147484, 0.0758193955, -0.0791298896, 0.0191345979, -0.0000335512, -0.0914664194, 0.0012209465, -0.1006361619, 0.0024780992, -0.0062725130, -0.0482443161, -0.2658660710, -0.2649022341, -0.0042755441, 0.0071379477, -0.0139899487, 0.0013398632, 0.0230811629, -0.1487904936, -0.0040139738, 0.0352428369, 0.0008696001, 0.0007432563, -0.0006273706, 0.0001082691, 0.0000752188, 0.0396829061, -0.0020588406, 0.2366068065, -0.0000256335, 0.1227940992, -0.0078508761, -0.0006951574, 0.0000129403, -0.0766372308, -0.0510533750, 0.0156316496, -0.0000593943, -0.0097957449, 0.0689308271, 0.0105028832, 0.0021957534, 0.1067939624, 0.0235519242, 0.0720095113, -0.0113049150, 0.1415775716, -0.0000277831, 0.1138294339, -0.0000025447, -0.0018019372, 0.0046954444, 0.0001700345, 0.0206243657, 0.0780338049, 0.0297979619, -0.0057297042, 0.1613230258, -0.0063784374, -0.0009690830, -0.0003771479, 0.1059473976, -0.0038388590, 0.0015315892, -0.0502126366, -0.1517236233, 0.0000800566, 0.0311057977, -0.0001599847, -0.0007307004, 0.2968392372, -0.1623954922, 0.0373718031, 0.0011362041, 0.1530171931, -0.0003767366, -0.0006409684, 0.0016268821, -0.0667382851, 0.0059271483, 0.0061672791, 0.0016580991, 0.0292081889, 0.0055208942, 0.0130342655, -0.2405348271, 0.0595069341, -0.0055649616, -0.0001109521, -0.0000205096, -0.7615570426, -0.0819345564, 0.2103687227, 0.0001959802, -0.0058747712, 0.0127598960, 0.0230054818, 0.0000338108, 0.0121731674, -0.0005074335, 0.0021295431, -0.0000432612, 0.0559943728, -0.3575860858, 0.0762132481, -0.1399628073, 0.0028687986, 0.0254057478, -0.0403976254, 0.0832856968, -0.2343314886, 0.0000125228, 0.0037274875, -0.0000102146, -0.0792313963, -0.0043180366, -0.0000785458, -0.0021783544, 0.0247906651, 0.0179884490, -0.0047259023, 0.0038510284, -0.0280137323, -0.0004480272, 0.0000045573, -0.0836410522, -0.1578632593, -0.0860513672, 0.0005485255, 0.0544991568, 0.1854154319, 0.0126929479, -0.0000179684, -0.0014858034, 0.0646341145, 0.0025529303, -0.0285398643, 0.0008880881, 0.0216175374, -0.1667394042, -0.2057283968, -0.0042883931, 0.0071218424, -0.3306824565, 0.0748881176, 0.1037112847, -0.3434503973, -0.0040160981, 0.0352503993, 0.0008615158, 0.0498577096, -0.0006173991, 0.0001116817, -0.0001225342, 0.0396776460, -0.0020603458, -0.2261991054, -0.0001252093, 0.0040587704, -0.1291508526, -0.0006909405, 0.0000238139, -0.0367481709, -0.0006212493, 0.0156250615, -0.0000110802, -0.0098640462, 0.0162161440, 0.0105096297, 0.1503798813, 0.2259716839, 0.0230679233, 0.0028026348, -0.0512888543, 0.1436264515, -0.0002008550, -0.1062198281, 0.0000292129, -0.0018048197, 0.0047149309, 0.0000084503, 0.0018291364, -0.0778564438, 0.0098810857, -0.0225546882, 0.0085173352, -0.0045278985, 0.1336413622, 0.0000665758, -0.0010922356, -0.0038202773, 0.1529345810, -0.0035959864, 0.0795878991, 0.0000810024, -0.0891606882, -0.0000647482, -0.0006910758, 0.0016782086, -0.0000971674, 0.0035162342, 0.0011450058, -0.1194852814, -0.0003746783, -0.2043723464, 0.0021387625, -0.0032808669, 0.1543273628, 0.2678418458, -0.3450202048, 0.2637015879, -0.0031752475, 0.2086771578, -0.0453432649, -0.1218496338, -0.0021901284, -0.0001480582, -0.0000862696, -0.0333769023, -0.0004671718, 0.0816043690, 0.0001230478, -0.0032901105, 0.1663962156, -0.3629217744, -0.0000366515, 0.0013083268, 0.0002441020, -0.0096475584, -0.0000346183, 0.0029101195, 0.1493753642, 0.0388476998, -0.0023315975, 0.2524822354, -0.0047732284, -0.0849842131, -0.4270921350, -0.0159616116, 0.0002464346, -0.0024278569, -0.0000039753, -0.0161261782, 0.2572605014, 0.0000090723, 0.3722700477, -0.0624234192, -0.0079463916, 0.3887965977, -0.0005782304, -0.1007277891, 0.0003830114, 0.0003637941, 0.1226871014, -0.0002099656, -0.0179187190, 0.0226248167, 0.2977193594, 0.1849840134, 0.0182528924, -0.0000809166, 0.0003795245, 0.0027089284, -0.0313464962, -0.0192197151, -0.0044229082, 0.1053715646, 0.0814051330, -0.0041461545, 0.0025315273, -0.1284294724, -0.1066756919, -0.1844301671, -0.1404096037, -0.0840504840, -0.0013554448, 0.0381456502, -0.2815380692, 0.0238084458, 0.1022272706, -0.0000329125, -0.0001483980, 0.0925066471, -0.0032482708, -0.1105811447, -0.0000832030, -0.0326455124, -0.0048135491, -0.0016077731, -0.0000108589, -0.0033555585, -0.0858963057, 0.0029859536, 0.0000374480, -0.2439450771, -0.0060901130, -0.0116669154, -0.0025942719, -0.0909716636, -0.0025937790, 0.0709662512, 0.0015062607, -0.1049896702, -0.0001904708, -0.0117943473, -0.0000176376, 0.0714148656, 0.1877760291, -0.0000133127, -0.0541275293, -0.2439135164, -0.0087895142, -0.0469529182, 0.2032364011, 0.0008102152, 0.1508476287, -0.0001043387, 0.0139019657, 0.0566646755, -0.1608904749, 0.0017560406, -0.2034994662, -0.1012837887, 0.1943624765, 0.0000037466, 0.0004714476, 0.0059840083, 0.1532607675, -0.0004956960, -0.0052481764, -0.1639587879, 0.0041380883, 0.0006611055, -0.2163539976, -0.0059559806, 0.0442999378, -0.1347015053, -0.1108829230, 0.0062815528, -0.1681777984, 0.1778563112, -0.0348697491, 0.0009874393, 0.0275816899, -0.0001038613, 0.0000875018, 0.0032118042, 0.0032769663, -0.1788407117, 0.0000635529, 0.0069965716, 0.0013300806, -0.3285008371, 0.0001188384, 0.1179604605, -0.0000774968, -0.0400315188, 0.0000555489, -0.0007141074, -0.0041216067, -0.0147964386, 0.1012490094, -0.0054112757, -0.0020692097, -0.0007614046, 0.0814597085, 0.1055343747, -0.0000146135, -0.0021322961, 0.0000424983, -0.3393129706, -0.0044661607, -0.0000678376, -0.0232236665, -0.0027248228, -0.0083392952, -0.0011981431, -0.3307228982, 0.0001788966, 0.0006219296, 0.0000848956, 0.0433207713, 0.4225945473, 0.3325723410, 0.0022624179, -0.7332006693, 0.0042721122, -0.2186253667, 0.0000290696, 0.0002978931, 0.0336596146, -0.1881624162, 0.1967058778, -0.0260808412, -0.0730331689, 0.0024307359, -0.0028709851, 0.0001582435, -0.0165544748, 0.0368188620, -0.0009695466, -0.1031155661, 0.0001598774, 0.0310157295, 0.0425443240, -0.1036775559, -0.0014901476, 0.0008691128, 0.0000866930, -0.0000890647, 0.1508823633, -0.0003825336, -0.0004474626, -0.0002376417, 0.0030471692, -0.0421517119, -0.0015038954, 0.0000801778, -0.0296062157, 0.0002480840, 0.2942249477, 0.0000338363, -0.3195794821, -0.0010609784, 0.0026036170, 0.2689341903, 0.0001108993, 0.0490261540, -0.0069403700, 0.3310141861, -0.0017997323, 0.0000319689, -0.0164088085, 0.0000071505, -0.0180470981, 0.0100933108, 0.0000460389, -0.0638859421, -0.0222700294, -0.0024352106, -0.1326169968, 0.2023654878, -0.0014237906, -0.1218112707, -0.0000177358, 0.0746084675, 0.0005804369, -0.5857824683, -0.0006414606, -0.0028959538, 0.0870087743, -0.0131475050, 0.0000350675, 0.0006938197, 0.0745719522, 0.1698228866, -0.1510085911, -0.0023583141, 0.0499586016, 0.3140315413, 0.0000594069, 0.0019587437, 0.0006951372, 0.0991361663, -0.1905053258, -0.0016343934, 0.0878504738, 0.0461512879, 0.1336009800, 0.1513531655, -0.0296132807, -0.0034451734, -0.0000713460, 0.0004365326, -0.0742220655, 0.0009702268, 0.0867379978, 0.0001152973, 0.0057063759, -0.0051381411, -0.1172533035, 0.0001819110, 0.0021630074, 0.0002859726, -0.0503498055, 0.0000332615, 0.3108914196, -0.0028815223, -0.0160242394, -0.0235949699, -0.0026977668, -0.0062189344, 0.0021977529, -0.1650649607, -0.0868311375, 0.0000095224, -0.0046636886, -0.0000071125, 0.0995916426, -0.0052735670, 0.0000722256, 0.0054921662, -0.0021528306, -0.0042397692, -0.0008274948, -0.0088179708, -0.0991429538, 0.0015248819, -0.0000558509, -0.0012282240, 0.0047333981, 0.1212689728, 0.0012389579, 0.1204755530, -0.0318690315, 0.0210099500, 0.0000590324, 0.0000006800, 0.0008539286, -0.0425335616, -0.0042726463, -0.0082362369, -0.0036144059, -0.0586545467, 0.0008399030, -0.0021058507, -0.0003315597, 0.4013262987, 0.4075807631, 0.2566002905, -0.2639050782, -0.0073565594, -0.0588254444, 0.0909554586, 0.0012725811, -0.0047421861, -0.0002368924, 0.0002283633, 0.0205253121, 1.4451822042, -1.2798384428, -0.0000574822, -0.0551507026, 0.0601028204, -0.0000197661, 0.0000168638, 0.5929539800, 0.0002117392, -0.1690245569, 0.0000473776, -0.2185435146, 0.8987466693, -0.2793191671, 0.9121727347, 0.7639616728, -0.0006438630, -0.4466391206, -0.6403980851, -1.1213965416, -0.0000374276, 1.5674977303, 0.0000129403, 0.6411392093, -0.0048134685, 0.0001506048, 1.0597356558, 0.2754414678, 0.0002231985, 0.5999909043, 0.3452593684, -0.0007158106, -0.0004021483, -0.0000512422, 0.1226725951, 0.0216998216, -0.5271661878, -0.0000734303, -0.0032555165, 0.6107172370, -1.5667810440, -0.0000330087, 0.3642182648, 0.0003944662, -0.9246529341, -0.4718471169, 0.0724337250, 1.5345718861, -0.0143382093, -0.0340592824, -0.0019104186, -0.2900615931, 0.0040216390, 0.3727057874, -0.0184375718, 0.0507969931, 0.0680848435, 0.0026073875, 0.0584809929, 0.0045108637, -0.3221767247, 0.0000711462, 0.0000512652, -0.0532894321, 0.1418261230, -0.0425494649, 0.0000561006, 0.1976103783, 0.0040941685, 0.1629041880, -0.0000117515, -0.0055442038, 0.0439961031, 0.0703930035, -0.0001953961, 0.1727405339, -0.1549986303, -0.5765811205, -0.0893006846, -0.1470445246, -0.0031340318, -0.2963525057, -0.0083780987, -0.0403368920, -0.0001571296, 0.0327539630, -0.0000378579, 0.0179998185, 0.3677454889, 0.0000476907, -0.0320442617, 0.3792012334, -0.5962880850, -0.1693672985, 0.1603432000, 0.0033421493, -0.4044580460, 0.0000533790, 0.3551884592, -0.0005997752, 0.0954220667, -0.0238619838, -0.0315736569, 0.0466757156, 0.1285517365, 0.0001575487, -0.0001145513, 0.0012422520, 0.0036994377, -0.0022441114, -0.0020989613, 0.0033682850, -0.4502687454};
#endif

#endif
