//Numpy array shape [64, 32]
//Min -1.070070147514
//Max 0.782069265842
//Number of zeros 0

#ifndef W5_H_
#define W5_H_

#ifndef __SYNTHESIS__
fc2_weight_t w5[2048];
#else
fc2_weight_t w5[2048] = {0.0759621784, 0.0008078983, -0.3782224655, 0.0003901247, -0.0000701108, 0.0755429044, -0.0000221992, 0.0111943986, -0.0268335100, -0.0038345342, 0.0030851935, -0.0000900218, 0.0364124142, 0.1272048056, -0.0001235569, 0.0007938606, 0.0000032887, -0.0482421927, 0.0002005774, -0.0004107232, 0.1244785488, -0.0011087158, 0.0118963402, 0.0004153230, 0.0000590353, 0.0712832436, 0.0099182660, 0.0001472875, 0.1314697713, 0.0001554137, 0.0012333615, -0.0001030115, 0.0007080126, 0.0014038050, -0.0025210439, 0.0023707328, -0.0002115404, -0.0007712952, -0.0000000759, 0.1221290231, -0.0001434044, 0.0005023207, 0.1721607596, -0.0000215471, -0.0009072980, 0.0012101403, -0.0004600742, -0.0001797630, 0.0001056573, 0.0016701373, -0.0000065345, 0.0003590127, -0.0003900513, -0.0017785769, 0.0050507318, -0.0036315471, -0.0000380131, 0.0745012760, 0.0170293730, -0.0002516396, -0.0010397286, -0.0000188310, 0.0026761170, -0.0000320972, -0.1948663890, 0.0028075564, 0.0116158947, -0.0003922368, -0.0000810562, -0.0016571148, 0.0000684680, 0.0033740313, 0.0885229036, 0.0919146091, -0.0006598115, 0.0000422894, 0.0020567151, 0.0043081432, 0.0000670250, -0.0018454141, -0.0000512055, -0.0001126318, 0.0002027896, -0.0012479653, 0.2246921062, 0.0003444862, -0.0052737901, -0.0050442577, -0.0000715973, -0.0000947418, -0.0002509553, -0.0002392774, -0.0003637085, -0.0001560885, 0.0004804867, -0.0002468335, -0.0005214571, 0.0034194645, 0.0007805480, -0.0021094512, 0.0000744417, -0.0050009643, 0.0000717088, 0.0660756156, -0.0763396025, -0.0563371181, -0.1010786071, 0.0000965253, 0.0070596207, 0.0026069793, -0.0011977982, -0.0022635334, -0.0003064203, -0.0028307375, -0.0000727029, 0.1478612572, 0.0629503503, -0.0004679071, -0.0236345977, 0.0001258950, -0.0000047508, 0.1402692944, -0.1680546552, -0.0001183278, -0.0062394254, 0.0000115494, -0.3120468259, -0.0000112090, 0.2632473707, 0.0001611567, -0.0073857834, -0.0006272787, 0.0003214235, -0.0023587132, -0.0000546601, 0.0409921631, -0.2944816053, -0.2108032256, 0.0009100422, -0.0000975939, 0.1300738007, 0.0067651668, -0.0006173400, -0.0154576078, 0.0000934966, 0.0043468759, -0.0000378836, 0.4840227067, -0.0006462928, -0.0036640244, -0.1564702392, -0.1355799139, -0.0000751491, 0.0960330889, 0.0015157715, 0.0000496065, -0.0676647499, -0.0000260484, -0.1248361021, 0.0000294607, -0.0017450998, -0.0003460404, -0.1249960586, -0.0024687024, -0.0001094129, 0.0090359170, 0.0000345641, 0.0960445479, 0.2940655053, 0.0011684098, 0.0023860694, 0.0001877773, -0.0003122298, 0.0017133425, 0.0000523073, 0.0723446533, 0.0001552132, 0.4079256058, 0.0000269952, -0.0014501032, 0.0000996373, 0.0039655608, 0.0185089782, -0.0001589905, -0.0001094726, 0.0010822662, 0.0025723185, -0.0000373106, -0.0016243367, 0.0000169984, 0.2550972700, 0.0001168570, 0.2080525011, 0.0013109129, 0.0003938394, -0.5874729156, 0.0001393863, -0.0020309146, -0.0000192325, 0.0227580741, 0.0139510743, -0.1644715071, -0.1183564588, -0.0000856732, 0.0015531565, 0.0010376592, -0.0013839072, 0.0011030068, 0.0000854158, -0.0010754751, -0.0000340415, -0.0010189617, -0.2670599222, -0.0046843975, 0.0447253175, 0.0769927353, 0.0000082911, 0.0055751270, 0.0059652170, -0.0000526485, -0.0018518621, -0.0000002706, -0.0022486520, 0.0001533240, 0.0706121027, -0.0046757567, -0.0015331738, 0.0004230569, 0.0000611699, -0.0773962215, -0.0001822190, 0.0041192975, 0.2046806365, -0.0352046117, 0.2444809228, -0.0000652342, -0.0013537572, 0.0278238747, -0.0003630751, 0.0008488410, -0.0000081074, -0.0005972382, -0.0001639437, 0.7820692658, -0.0014665454, -0.0013135598, 0.0244695004, 0.1742373854, -0.0000759102, -0.0000299924, 0.0042914893, 0.0000898733, 0.0003031831, 0.0000104660, -0.0002239013, -0.0000234629, 0.0715927258, -0.0007619226, -0.0030919590, 0.0004567608, -0.0000188069, 0.0065496173, -0.0000478146, 0.0071458700, 0.2936024964, -0.0013832321, 0.0071990131, -0.0000753751, 0.0000228704, -0.0079752803, -0.0006595859, 0.1966456473, 0.0000070033, 0.0019884813, 0.0001760430, 0.0003771657, -0.2206903398, -0.0022481852, 0.0833790228, -0.0004851756, 0.0000823436, -0.0044183414, 0.0011976644, 0.0000928735, 0.0055181892, 0.0000121952, 0.0016760956, 0.0000143835, -0.0384638719, -0.0000205264, -0.0019298517, 0.2442378998, -0.0000642012, -0.0541198291, -0.0000457683, -0.0000937280, 0.1919187307, 0.2883360088, -0.0069386032, 0.0000670648, 0.0022765542, 0.0021071264, 0.0001584897, 0.0012497416, 0.0002359022, 0.0009114452, 0.0000693387, 0.0000513705, 0.1563148499, 0.0019409657, 0.1186814457, -0.0041458020, -0.0000347597, 0.2009123713, 0.1232657731, -0.0001037154, 0.0003019435, 0.0000174001, 0.1373046488, 0.0000367248, 0.0008804869, 0.0069145747, -0.0001021732, 0.0025743090, -0.0002461863, 0.0585798658, -0.0000067886, 0.1484390050, -0.1997660995, -0.4844303727, -0.0237110537, -0.0000579895, 0.1571564227, -0.3941993713, -0.0007707378, -0.0056987153, 0.0000999910, 0.0020891998, 0.0000088840, -0.0688536912, -0.0789561793, -0.0009930672, -0.1814816743, 0.0037167249, -0.0002610532, 0.0183168259, -0.5583924651, 0.0000385921, -0.0010529230, 0.0000128436, -0.0756116882, 0.0000696152, 0.1641157269, 0.0037103682, 0.2447480708, -0.0145603949, 0.0000875377, -0.0013882385, 0.0000956246, -0.4614405334, 0.0574499965, -0.0079742512, 0.1362734437, -0.0001182356, -0.0195801705, 0.0791209862, -0.0004520847, -0.0035498491, -0.0000216515, -0.2482702583, 0.0000377075, 0.1386975944, 0.4162108004, 0.0034165904, 0.0620671771, 0.3884044588, -0.0000081600, -0.0623617917, 0.0043418412, 0.0001000317, -0.0016084996, -0.0000337167, 0.0065905116, -0.0000767381, 0.0000011861, 0.0000726167, -0.0000217004, -0.0001682689, -0.0001634824, -0.0000279387, 0.0001292231, -0.0000750778, -0.0001399856, 0.0000740844, -0.0001240314, -0.0001205956, -0.0000323978, -0.0000445364, -0.0001103997, -0.0001747187, -0.0002199672, -0.0002012564, -0.0001693815, -0.0001216745, 0.0001017677, -0.0000904368, 0.0000802066, -0.0001360332, 0.0000059359, -0.0002011000, -0.0001479220, -0.0000259061, 0.0000007758, 0.0000301116, -0.0001149304, -0.0001506742, 0.0001348806, 0.0000063346, -0.0000359601, 0.0000615057, 0.0000792282, 0.0000284879, -0.0003290455, 0.0000267641, -0.0001648363, -0.0000547124, -0.0004303748, 0.0001065599, 0.0002685948, -0.0001306967, -0.0000367129, 0.0001432724, 0.0001795143, 0.0000662102, -0.0000651681, 0.0001595490, -0.0002718308, 0.0002377766, -0.0000833884, -0.0001405279, -0.0001363638, -0.0000208606, 0.0000128862, -0.0002335806, -0.0001957765, -0.0001559348, 0.0001670385, 0.0002162632, 0.0013407520, -0.3606134355, -0.0005719287, 0.2432617396, -0.0001997161, 0.0004243644, 0.0000349093, -0.2595965862, -0.0375978276, -0.0023553143, -0.0008611642, -0.0002651741, -0.0044924156, 0.2633101940, -0.0000183737, 0.0073277638, 0.0000695109, 0.0028667767, 0.0001699251, -0.0538134314, 0.3831810355, 0.1220896766, 0.0149260797, -0.0028718393, -0.0000950553, 0.0573637970, 0.0689688250, -0.0000791211, 0.0554832183, 0.0000262632, -0.0006570378, 0.0000255225, 0.0332936794, 0.0131198866, 0.0563082658, 0.0177624207, -0.0000003296, -0.6619281173, -0.0000460206, -0.0087070921, 0.1771130860, -0.0012843633, -0.3620914817, 0.0000799609, 0.0009157513, 0.0031228072, 0.0000608264, 0.0010896474, 0.0000517030, 0.0022350312, 0.0001837023, 0.0005469411, 0.1132204756, -0.0017320203, -0.0010134992, -0.0253017489, -0.0000052251, 0.0002016702, -0.0021619766, -0.0001067729, -0.6578859091, 0.0000256814, 0.0014563241, -0.0001929597, -0.6451196074, -0.0037319332, 0.0018736750, -0.3212758601, -0.0000360342, 0.0226689558, 0.0000688941, 0.0010865016, 0.6649615169, 0.0234763920, 0.0007324754, -0.0000378356, -0.1221746504, 0.0028817791, -0.0006496641, 0.0147288293, -0.0000769636, 0.0037800150, 0.0001058634, -0.1126408726, -0.2276915908, -0.0002599552, 0.5237933397, 0.0016153835, 0.0001705298, 0.0001296627, 0.0112985289, 0.0000245030, 0.0275876652, -0.0000169849, 0.5882456899, -0.0000339169, 0.0000450464, 0.0000708943, 0.0001213358, -0.0001490557, -0.0000698908, -0.0000309108, -0.0001456725, -0.0001384669, -0.0000796038, 0.0000244380, 0.0002516062, -0.0000024945, -0.0001298061, 0.0000068228, 0.0001875693, 0.0000414918, -0.0000011810, 0.0000312129, -0.0000411129, -0.0002397371, -0.0002195140, 0.0000996693, -0.0000860634, 0.0001705831, -0.0000082897, 0.0000892588, -0.0001809753, -0.0001100566, 0.0000874426, 0.0002464656, 0.0001753843, 0.0000367789, 0.0057582264, -0.0038265055, -0.0024567745, 0.0015006944, -0.0002569072, -0.0072558005, -0.0000797594, -0.3044259846, -0.0689647198, 0.0159899518, -0.0075966166, -0.0001269963, -0.0607740954, 0.0012860330, 0.0117377564, 0.0048332484, 0.0001337417, 0.0309830364, -0.0001715960, 0.0010727231, 0.0015268953, 0.0050611468, 0.0722063109, 0.1141315177, 0.0001734211, -0.0013866561, 0.0025434135, 0.0000103683, 0.0021399329, -0.0000111877, 0.0049178330, -0.0000326606, 0.0094583109, -0.0201090761, -0.0001464049, -0.1586589217, 0.0001915434, 0.0008226755, 0.0000257572, 0.0083265761, -0.1237508133, -0.0781813636, -0.0782663897, -0.0000126315, 0.1188938990, 0.0002637814, -0.0004597393, 0.0139254984, -0.0000921558, 0.0558887832, -0.0000083039, 0.0441663116, 0.2370130420, -0.2277432829, -0.1458810419, 0.3665347993, 0.0000122583, 0.0048684184, -0.0049773701, 0.0000901801, 0.0081518600, -0.0000213162, -0.2514881194, 0.0002514409, 0.0015266752, -0.0023149797, -0.1804904789, 0.0011770768, -0.0002190067, 0.0106021296, -0.0000079870, 0.0024949033, 0.2742263079, -0.0001658989, 0.2523695230, 0.0000709661, 0.0036318034, 0.0005122192, 0.0002769898, 0.1043968797, 0.0001242886, 0.0482627414, -0.0001509630, 0.0562076382, -0.0597427078, 0.0345344990, 0.0535636954, -0.0072271083, -0.0614368990, -0.0019127659, 0.0596702732, 0.0000380474, -0.0011054749, 0.0000082287, 0.0527961664, -0.0000083976, -0.0000463546, -0.0000328191, 0.0000423534, -0.0000963054, -0.0000169190, -0.0000367905, -0.0001162589, -0.0000079155, -0.0002408711, 0.0000209077, -0.0000008232, -0.0002467726, 0.0001562524, 0.0001721040, 0.0001181069, 0.0000387512, 0.0000334132, 0.0000399557, 0.0000458943, -0.0002436783, 0.0000092151, 0.0000725464, 0.0000925648, -0.0001693750, -0.0002457877, -0.0001539127, 0.0000320964, 0.0002519206, -0.0000780060, -0.0002447219, -0.0001502740, 0.0000306161, 0.0035304031, 0.1734218746, -0.0017117643, 0.0003030615, -0.0000522536, -0.2671115100, -0.0000992494, -0.0029274886, 0.0191552620, -0.0018107853, 0.0021202799, 0.0001438475, 0.0012903439, 0.0005576744, 0.0000001926, 0.0008505326, -0.0003750041, 0.0032114191, 0.0001535838, 0.0574717298, 0.0745176449, -0.0010994646, -0.0014033257, -0.0008059959, -0.0000133338, -0.0017903257, -0.0009034281, -0.0001837433, -0.0932019055, -0.0001187108, 0.0017799638, 0.0000675124, -0.0006241378, -0.0013623472, -0.0024533649, 0.0159792602, -0.0001341742, -0.0005741385, 0.0002414623, -0.0021069997, 0.0021300851, 0.2074892670, -0.0032674777, 0.0001612050, -0.0022003844, -0.0003391400, -0.0010027061, 0.0012681960, -0.0000274692, -0.0000810649, 0.0001196699, -0.0001759339, -0.0011477630, -0.0007371939, 0.0020640162, 0.0012421913, -0.0000109256, -0.0515769720, 0.0007645598, -0.0001164145, 0.0009318053, -0.0000237305, -0.0000039251, 0.0000579657, 0.0085015763, -0.0286664907, -0.0032581259, -0.0031397655, -0.0000560127, 0.0055617951, -0.0000075374, -0.0004495717, 0.0464185514, -0.0041276049, 0.1145521998, -0.0000243494, 0.0010049104, 0.0076588602, -0.0010428977, 0.2718105018, -0.0000815216, 0.0028085702, 0.0000959409, 0.2895001173, -0.0513953306, 0.0009092626, 0.0009172059, 0.2217540592, -0.0000458256, 0.0521685369, 0.0361570269, -0.0000598600, 0.0052894894, 0.0000132048, -0.0057609496, 0.0000079497, 0.0000815709, -0.0000719987, -0.0002876412, 0.0001059419, -0.0002808572, 0.0000857005, -0.0000121322, 0.0000422417, 0.0001232168, 0.0000677993, 0.0000452470, 0.0000811312, 0.0000477573, 0.0000457112, 0.0001098739, -0.0002299743, -0.0000126356, 0.0003128258, -0.0001675701, 0.0000533484, -0.0001541427, -0.0000756027, 0.0000283549, 0.0001091315, 0.0000351818, -0.0001228933, -0.0000009249, -0.0001518703, 0.0001212860, 0.0001115865, -0.0001245835, -0.0000703205, -0.1691761762, 0.2995538116, -0.5940410495, 0.0034152849, 0.0000708620, 0.1477223933, 0.0000404701, 0.0778502747, -0.1227221712, 0.0627325401, -0.1379689276, -0.0001084604, 0.0018347822, -0.0000850544, 0.0001796393, -0.2799756229, -0.0000771263, -0.3050425351, -0.0000063322, 0.0023631202, -0.0007051240, -0.0029993390, 0.0007992648, -0.0005855386, -0.0000441377, 0.0022318023, 0.0045937584, 0.0000830366, -0.0028849922, -0.0000697896, 0.1233051568, 0.0000691497, 0.0265736841, 0.0006453984, 0.1814097762, -0.0010026286, -0.0001588347, -0.0117748771, -0.0000019828, -0.0019260641, 0.0004305716, 0.2780282497, -0.8198072910, -0.0000221219, 0.1187098399, -0.0018732900, -0.0001473570, 0.0005545822, 0.0000473826, 0.0562955812, -0.0001149270, 0.0028608651, -0.1563307196, -0.0036561310, -0.0024118610, 0.0003747902, 0.0000077404, -0.2587328255, -0.0034699442, 0.0000723207, -0.0063878573, 0.0000121701, -0.0040291189, 0.0000213694, -0.0045353677, 0.0015282549, -0.0021186064, -0.0010495861, -0.0000959733, 0.0019861576, 0.0001155449, -0.5517554879, -0.0160086043, 0.0006417257, -0.1585345566, -0.0000233923, -0.0044645262, 0.0004075465, 0.0006494902, 0.0015042537, 0.0000449050, 0.3637713194, 0.0000107542, -0.1332959980, 0.0000693591, 0.0043050917, 0.0103969853, 0.0024691450, 0.0001202721, -0.0036997055, -0.0035306001, -0.0001120146, 0.0000780716, -0.0000721163, 0.0055568260, -0.0000466771, 0.2815916538, 0.0010745625, 0.0652977303, 0.0760246813, -0.0000895145, -0.0009344310, -0.0000105769, -0.2474021614, -0.5726405382, -0.0008291709, -0.0031292636, 0.0000058827, -0.0020999715, 0.0040270793, -0.0006049081, 0.0439840928, -0.0000510741, 0.2597569823, -0.0002449003, -0.0046758880, 0.1561846137, 0.0063023446, -0.1101963744, -0.0042663021, 0.0000839222, 0.0017602176, -0.0024665284, -0.0000453002, 0.0003311284, 0.0000709218, -0.2951202095, 0.0000479921, 0.0646404177, 0.0013425157, 0.2157533020, -0.0020083135, -0.0003680633, 0.0120753907, -0.0000415120, -0.0036182192, -0.1920704097, -0.1183157712, -0.0060821041, 0.0000202355, -0.0130908759, 0.1637087315, -0.0000310871, 0.0823436677, 0.0000434398, -0.0844465345, -0.0000395357, -0.1688274443, 0.2119320929, 0.0379886366, -0.1710075438, -0.0029436909, 0.0000023462, 0.0019381115, 0.0009318050, -0.0000928428, 0.1128065735, 0.0000155333, -0.1434415281, -0.0000467520, 0.2336726785, 0.0002297819, 0.0003029974, 0.0007893009, 0.0000689845, 0.0040579196, 0.0000816090, -0.0890843943, 0.0008748957, -0.0102987476, 0.0870392695, -0.0001192599, 0.0000752248, 0.0031284860, -0.0000288995, 0.0010682836, -0.0000299230, 0.0060905092, -0.0000056888, 0.0020259523, 0.0049196449, 0.0003637412, 0.0008515714, 0.3523111939, 0.0001185833, -0.0564525351, -0.0009707086, -0.0000405658, 0.0020475457, 0.0000088002, -0.0073896903, 0.0000363090, -0.1901549250, -0.0006755395, -0.0001464397, 0.1784179658, 0.0002072107, 0.1506772488, -0.0000172245, -0.0351791345, 0.0906698629, 0.3006613255, 0.0003926927, -0.0001340484, 0.0003454868, 0.0028532597, -0.0000134530, -0.0003810332, -0.0000660509, 0.0028525272, 0.0000335938, -0.1574905515, -0.0013184990, 0.0339564644, 0.2797493339, -0.0033448711, -0.0001406720, -0.0004131626, 0.1258410811, 0.0000691146, 0.0803157017, 0.0000898719, 0.0054000067, -0.0000784759, 0.4205941558, -0.3237876594, -1.0700701475, -0.0147370566, 0.0001137020, 0.3243392408, 0.0000147800, -0.1690852940, 0.0739626810, -0.0005614521, 0.2802810371, 0.0000702833, -0.2416928709, 0.0345100798, -0.0006715066, 0.0906047896, -0.0000246421, 0.4470449388, -0.0000399671, -0.0006397824, -0.1480725110, 0.5325522423, 0.0414549038, -0.0003750400, -0.0556747913, 0.3584710360, 0.1380776763, 0.0001073653, 0.0015410748, 0.0000225333, -0.1357249022, 0.0000710137, -0.2984782755, -0.0018639539, 0.0129690105, -0.0046419255, -0.0001879287, 0.1927465051, 0.0000181677, -0.0042979545, 0.6240330338, 0.2539285123, -0.1357301176, 0.0001709432, 0.0001385408, -0.0367081873, -0.0005834524, 0.0001321458, -0.0000967532, -0.0021801041, -0.0000532006, -0.0849118233, -0.0736125335, -0.0010988337, 0.3508624136, 0.0008956502, 0.0000131156, -0.0284803156, 0.2387342453, -0.0001002371, 0.0044680056, 0.0002519466, 0.3015953898, -0.0000148674, 0.0000554271, -0.0001118366, 0.0000008192, -0.0000001374, -0.0000268753, 0.0000068895, 0.0001995240, 0.0000673015, -0.0000292000, -0.0000381201, 0.0001704614, 0.0001090151, 0.0000347395, -0.0002460847, -0.0000173344, 0.0000730175, -0.0000459166, 0.0000087354, -0.0002449274, -0.0002447097, 0.0002433875, -0.0000281075, 0.0000173739, -0.0000453662, -0.0000905700, -0.0000145265, 0.0000114391, 0.0001573763, 0.0000460393, -0.0000291903, 0.0000172141, 0.0000746661, 0.1152891889, 0.0901072547, 0.1538351327, -0.1281844676, 0.0002292656, -0.2876675725, 0.0000752242, -0.0897855535, -0.1957059056, 0.0010471829, -0.3791669011, -0.0000615486, 0.0204757601, -0.8926733136, -0.0000938976, 0.0485188290, 0.0000460287, 0.1621353626, 0.0000743183, 0.0020139432, -0.1348504126, -0.8384150863, -0.0535902791, -0.0007800544, -0.0001065875, -1.0409420729, -0.0553806648, -0.0000102710, -0.0044081393, 0.0000199067, -0.0953505859, 0.0002074354, -0.0000193702, 0.0000036224, -0.0000496990, 0.0000522739, -0.0000486898, -0.0000118931, -0.0000694892, -0.0000261250, -0.0000092007, 0.0000025744, 0.0000218528, 0.0000490315, -0.0001058026, -0.0000227155, -0.0001057426, 0.0000572434, -0.0001049987, 0.0000090274, -0.0000306737, 0.0000175422, 0.0000078773, -0.0000264842, 0.0000279517, -0.0000346350, -0.0000042276, 0.0000084953, 0.0000075301, -0.0000596198, 0.0000283528, -0.0001539073, 0.0000028001, -0.0000480911, 0.0179738142, 0.0011117817, -0.1513625085, 0.3409522176, 0.0000055961, -0.0005040478, -0.0000281286, -0.0011234063, -0.4200470448, -0.0015673917, 0.0080638798, 0.0000907021, 0.1622145623, -0.0005931909, -0.0003900267, 0.0015419505, -0.0001297666, 0.0131206689, -0.0000916152, 0.0011708321, -0.0010912397, -0.0024219758, -0.3706410825, -0.0012261519, -0.0000779652, 0.2080224752, 0.0007458639, 0.0000011683, -0.0027114882, -0.0000319448, -0.0886314660, -0.0001505169, 0.0152382506, -0.0383404605, -0.0041672951, -0.0657350644, -0.0001386836, 0.0027400604, 0.0000153046, 0.1430232823, 0.1303569078, 0.0073887208, -0.0003943896, -0.0000939490, 0.0004514058, 0.1572598070, -0.0016958826, 0.0467282422, 0.0000823029, -0.1115856618, -0.0000291908, 0.2190298885, -0.0007165297, -0.0064269607, 0.1197063103, 0.0058732037, 0.0000238902, 0.0478579886, 0.0379909351, 0.0000540177, 0.0658237711, -0.0000139208, -0.1520877331, 0.0001570249, 0.0001539260, 0.0001708410, 0.0000130253, -0.0000250885, -0.0000235664, -0.0001599738, -0.0001713578, 0.0001692992, 0.0000858544, 0.0000220912, 0.0000700122, 0.0001274608, -0.0000459908, -0.0001579525, 0.0001197672, -0.0000633449, -0.0000025285, -0.0000408865, -0.0001565809, 0.0000091574, 0.0000393554, 0.0000743487, 0.0001089737, -0.0000793627, 0.0000084664, 0.0001717983, 0.0000686797, 0.0000068763, -0.0000331095, 0.0001603600, 0.0000078587, 0.0000481010, 0.2016510069, 0.0269932989, -0.0019526881, 0.0016605508, 0.0000452408, 0.0003577734, -0.0000057281, -0.0074397963, -0.8097069860, -0.0006929999, 0.0007062564, 0.0000511914, -0.0029240965, 0.0032805251, -0.0001166220, 0.0015600012, 0.0000902684, -0.1603398770, -0.0000606535, 0.0292570237, 0.2038853467, -0.0002307712, -0.5277460217, -0.0036574644, -0.0000690248, 0.3322639167, -0.0045309868, 0.0001542197, -0.0001957109, 0.0000307590, -0.0889292732, 0.0000004134, 0.1591711938, -0.0017595675, -0.0036475174, 0.0355842896, -0.0001872632, 0.0022528367, 0.0000243485, -0.0016640776, 0.0067151021, 0.0000328610, -0.0048616556, 0.0000561956, -0.0002503969, -0.2634558678, -0.0000234675, 0.0022639234, 0.0001006314, 0.0504529849, -0.0002034227, 0.1455090195, -0.0142815318, -0.0056363726, 0.0006457125, -0.0012313228, -0.0000409991, -0.5667775273, 0.0003465602, -0.0000200102, -0.0022714559, 0.0000161864, 0.0081912344, 0.0000066631, 0.0002140463, 0.0052037374, -0.0008063854, -0.0006774944, 0.0002823361, -0.0016700041, -0.0000209099, 0.0005956143, -0.0466070846, -0.0018034118, 0.1010856926, -0.0000021096, -0.0015469783, 0.0079525150, 0.0000991427, -0.0002843124, 0.0001432639, 0.0383633524, 0.0000779811, -0.2695419788, 0.0622536205, 0.0113685178, -0.0054813731, 0.0337439887, 0.0003208678, 0.1239242405, 0.0004529333, -0.0000474920, 0.0121518364, -0.0000254809, -0.1880916804, -0.0001546725, -0.0022714208, 0.0019145625, 0.3038752377, -0.0001134879, -0.0000707446, -0.3472902477, 0.0000635678, -0.0047859084, -0.0642516986, 0.0004770559, -0.1810410023, 0.0000052262, 0.0002289380, 0.0036973052, -0.0000005860, -0.0000582212, 0.0000371378, -0.0005888022, 0.0000226513, -0.0577855743, 0.2046369761, 0.0005554628, -0.0598646477, -0.0041814549, -0.0000346363, 0.0011685580, -0.0008584973, -0.0000925027, 0.0025655765, 0.0000239023, -0.0004365859, -0.0000690960, 0.1069677845, -0.0066640424, -0.0018593640, -0.0271589141, -0.0000099143, -0.0054630577, 0.0000036978, 0.1683883220, -0.1355790496, -0.0707467794, -0.0009389468, 0.0000762465, 0.0031157434, 0.1037263870, -0.0001241204, 0.0665702447, 0.0000203871, 0.2381862700, 0.0001073517, 0.0016413135, -0.0005196845, -0.0010197388, -0.0021134391, -0.0031990935, -0.0000339704, 0.0935306549, 0.0059432387, 0.0002830082, 0.0077655325, -0.0000536279, -0.2617795467, 0.0000112630, 0.0655721277, 0.0036760725, 0.0000735542, 0.0031801949, -0.0000813900, 0.0003944587, 0.0000344128, -0.0014403670, -0.0985091031, -0.4879826605, 0.0009519774, -0.0000189192, -0.0005176119, 0.0007805053, -0.0005050102, -0.0021327271, -0.0000820032, 0.0076778480, -0.0002304147, 0.0003027898, -0.0002067798, -0.0017180571, 0.0015684208, 0.0006372372, -0.0000090529, 0.0132268602, 0.0006170874, 0.0000294863, -0.0007566453, 0.0000706562, -0.0002805553, -0.0000674838, -0.1941432357, 0.0003606673, -0.0004579104, 0.0002954961, -0.0001411236, 0.0024611275, 0.0000200211, 0.0654726923, -0.0386133157, 0.0062428457, -0.0217831284, 0.0000235059, 0.0003513951, -0.0018317432, -0.0006734235, -0.0014148756, -0.0001392850, -0.0025012193, -0.0001234975, -0.1525298655, -0.2049158365, 0.1239991263, 0.0011861142, -0.0023521069, 0.0000959546, 0.5596179962, 0.0060464968, 0.0001545053, 0.0052283769, 0.0001537985, 0.0003824293, -0.0000406673, -0.0000301712, 0.0001462039, -0.0000852150, -0.0000362783, 0.0001303686, 0.0000165115, 0.0000394451, 0.0001192694, 0.0001016674, 0.0000163936, -0.0000944122, -0.0000943471, 0.0001388084, 0.0001460504, 0.0003241980, 0.0000635918, -0.0000803669, -0.0000633065, -0.0002350622, 0.0000030092, 0.0000165713, 0.0000172295, -0.0000912680, 0.0000829675, -0.0000194981, -0.0004044113, -0.0002660918, -0.0001177146, 0.0002163035, 0.0000200800, -0.0001383616, 0.0000096771, -0.0018063050, -0.0024807388, -0.0197640304, -0.0172675587, -0.0001654120, 0.0005812767, -0.0000618527, 0.2417991012, 0.0060657263, 0.0024971629, -0.0012432352, 0.0000537077, -0.0000062831, 0.0046932483, -0.0013616711, 0.0013185611, 0.0000145092, 0.0002868213, -0.0000245710, 0.3114437461, -0.0007790249, -0.0034536249, 0.0104396511, -0.0005059595, -0.0000029946, 0.0031910755, -0.0001276033, -0.0000483610, 0.0031856387, 0.0001414461, -0.1028413922, 0.0001519431, -0.1579675376, -0.0004623391, 0.0031565947, 0.0015161741, -0.0001952431, 0.0031562024, -0.0000573217, -0.0018887923, -0.0004337688, 0.0014557791, 0.1395225078, -0.0000968942, 0.0036679595, -0.0019892361, -0.0005650971, -0.0020792587, 0.0001642327, -0.1176989824, 0.0001979126, 0.1176917851, 0.0331813544, -0.0038612743, -0.0222572275, 0.0003361284, -0.0000108207, -0.1733909994, -0.0332809389, 0.0000224519, -0.0143866194, 0.0000226184, 0.3059341013, 0.0000314527, -0.4766078591, -0.0006623807, 0.0003269758, -0.0001843115, -0.0001160689, 0.1624904573, 0.0000008031, 0.0022439328, 0.0390650667, 0.4094053507, -0.0049117175, -0.0001313617, -0.0011811579, 0.0009476538, -0.0007593692, 0.0006183428, -0.0001984880, -0.0580991842, -0.0000266432, -0.0512057096, 0.0833400786, -0.0004808245, 0.1447836161, 0.0022645951, -0.0000352880, 0.0015879672, 0.1004944667, 0.0001388501, 0.0023902759, -0.0002477032, 0.3220317066, 0.0000769043, 0.0005364395, -0.0008530375, 0.0002118865, 0.0021963660, 0.0000954923, -0.0003556575, -0.0000207127, 0.0958946198, -0.0455005914, -0.1435362548, -0.0366247557, -0.0000787394, 0.0015633805, -0.0004145525, -0.0007924599, -0.0008215879, 0.0002322922, 0.0037948990, 0.0001678681, 0.0013077860, -0.0010194577, -0.0022985360, 0.0005878696, 0.1061366275, 0.0002161094, 0.0436635278, 0.0002395903, 0.0000001420, 0.0002192032, 0.0000181899, -0.0824224949, -0.0000330698, -0.2209621668, 0.0244992357, -0.0034436921, 0.0040825289, 0.0000028752, -0.0023909265, 0.0000495471, 0.6058270335, -0.0005565434, 0.0579166971, 0.0339414664, -0.0001070077, 0.2813975811, 0.0003147273, 0.0000891502, 0.0010812148, -0.0000222811, 0.0009142308, 0.0000315146, 0.2504566312, -0.0314903930, -0.0029336812, -0.0007863942, -0.0096980687, 0.0000171854, -0.0040064091, 0.0003773051, -0.0000095729, -0.0012829781, -0.0000397320, 0.1714533120, -0.0000336786, 0.3401300907, 0.0087445443, 0.0015810421, 0.0029698524, 0.0000351807, -0.0218176302, 0.0000047620, 0.0398391560, -0.2609978616, -0.0154358251, -0.1005956456, -0.0000610339, 0.0492334813, 0.0010587049, -0.0006669656, -0.0008038967, 0.0001547823, 0.0056034378, 0.0000632661, 0.1323602498, 0.0657974035, -0.0005648897, -0.1746494323, -0.0007713104, 0.0001405999, 0.0303555001, -0.7397043705, 0.0000005731, 0.0013974673, 0.0003670651, -0.2800157070, 0.0000099255, -0.0092723183, 0.0057471581, -0.0000398501, -0.0011443236, -0.0003110202, 0.3894963861, -0.0000096086, 0.0505576730, 0.1537997872, -0.3309013247, 0.0589569993, 0.0001174141, 0.0282832962, -0.3060933948, 0.1323807985, -0.1226550788, -0.0000123016, -0.0008212205, 0.0000395102, 0.1902458519, -0.8627481461, -0.2972927690, 0.0222770162, 0.0776420310, -0.0323250815, -0.3284645677, -0.8475358486, 0.0000190283, 0.1628562957, -0.0000839041, 0.3176169395, 0.0000308616, -0.0001045867, -0.0000328401, 0.0000410476, 0.0001270156, 0.0000311945, 0.0000771434, 0.0000001521, 0.0001755677, -0.0000790999, 0.0000350127, -0.0003071296, 0.0003716762, -0.0000636119, -0.0001799961, -0.0000263611, 0.0000547789, -0.0000842040, 0.0000934236, -0.0001593622, -0.0000708677, -0.0000257821, 0.0000214029, 0.0000250369, -0.0000284804, -0.0000974474, -0.0001019937, 0.0000847849, -0.0000624854, -0.0001521718, 0.0000705238, 0.0001547604, 0.0000346938, -0.0005423794, -0.0004339500, -0.0004785869, 0.0000428520, 0.0001729458, -0.0837456062, 0.0000244537, -0.0020963151, 0.0009034311, 0.0015672412, -0.0000056662, 0.0001070593, -0.0004281757, -0.0000953891, -0.0000065182, 0.0006614579, -0.0000081431, 0.0528049320, 0.0000046299, 0.0002915645, -0.0011403639, -0.0008644776, -0.0013743436, 0.0005783985, -0.0000176048, -0.0013342580, -0.0006090007, -0.0000210787, -0.0007041327, 0.0000092361, -0.0001541919, 0.0000397972, 0.2570293248, 0.0010564557, -0.0014340477, -0.0006124340, 0.0001355298, 0.0523488782, -0.0001964587, 0.0013891291, 0.0333680362, -0.0045023188, -0.0946573541, -0.0001683903, 0.0015358170, -0.0004711370, -0.0002446795, 0.0807558894, 0.0001085075, -0.0520354435, -0.0000007680, 0.0013936295, 0.0019161642, 0.0054056719, -0.0008622243, 0.0817883164, 0.0000623542, 0.0007023599, -0.0027979470, -0.0000085594, 0.0008954121, 0.0001571412, -0.0069471304, 0.0002475838, -0.1322659999, 0.0000615305, -0.0002086522, 0.0023813103, 0.0003734072, 0.1423029900, 0.0000509128, -0.0685498342, 0.7324571013, 0.1590119600, 0.3820635676, 0.0000620579, -0.2803507149, 0.0042409101, -0.0003601801, -0.0005354515, -0.0002764676, -0.1462318599, 0.0002805536, -0.0015372813, 0.0648581386, 0.0013071148, 0.5322000384, 0.0009430817, 0.0000075579, -0.0028040183, 0.2286167443, 0.0000436118, 0.0163591504, -0.0000298086, 0.2239089608, 0.0000238909, -0.3053944111, -0.0000333888, -0.0001046544, -0.0461694151, -0.0000330725, 0.0631293058, 0.0000232675, 0.0983981118, -0.0025425134, 0.0048412266, -0.7666904926, -0.0000573865, 0.1044359282, -0.0025500781, -0.0007983742, -0.0019362721, 0.0000962091, -0.0356673859, 0.0001023016, -0.0035485206, -0.0018569239, -0.0035566906, 0.0331221856, 0.0895674452, 0.0001999009, 0.0018254122, -0.0004851359, -0.0000004475, 0.0000572410, -0.0000269812, -0.0100962482, -0.0002514525, 0.1525693089, -0.0024191744, -0.0134051070, 0.0031644569, -0.0000455889, -0.0046747057, -0.0000639123, -0.0008658415, -0.0015837572, -0.0015970706, 0.0968813002, 0.0000172509, -0.0017331415, 0.0018031993, -0.0004630398, 0.0644530505, 0.0000666356, 0.0455261618, 0.0001064138, 0.0023725783, 0.0422755443, 0.0012852227, 0.0045946850, 0.0000379202, 0.0000034754, 0.0239988752, -0.0003503701, -0.0000423808, 0.0021060093, 0.0000173433, 0.0032813654, 0.0000282540, 0.2458621711, 0.2665332556, 0.0779185221, 0.0006888577, 0.0000741058, -0.6236739755, -0.0000871191, -0.0023456824, 0.0209665690, 0.0838231221, -0.7454693913, -0.0000618634, 0.0851119161, 0.0023141783, -0.0001654925, 0.0009927630, -0.0000456368, 0.0973335356, 0.0000481677, 0.0157967769, -0.1715658456, -0.0018575855, -0.1208268180, -0.0058818473, 0.0000050521, -0.0717220828, -0.0379797444, 0.0000288558, -0.3681567907, -0.0000267904, -0.0346217081, -0.0000794430, 0.0004827203, -0.0062628873, -0.0001186432, 0.0035607817, -0.0001731558, 0.1037681103, -0.0000002583, -0.0002080473, -0.0716961473, -0.5288265347, 0.0095384773, 0.0001133025, -0.0769802481, 0.1904342175, -0.0007455188, -0.0018899248, 0.0000869214, 0.0016247212, -0.0000703315, -0.2045616060, 0.1307929754, 0.0447049029, 0.0007670578, 0.0001399633, 0.0000819116, 0.2494541556, -0.2444610149, -0.0000455471, 0.2555387318, 0.0000100772, -0.0700630844, 0.0000808975};
#endif

#endif
