//Numpy array shape [32, 32]
//Min -1.849657773972
//Max 1.191462159157
//Number of zeros 0

#ifndef W8_H_
#define W8_H_

#ifndef __SYNTHESIS__
fc3_weight_t w8[1024];
#else
fc3_weight_t w8[1024] = {0.2687824667, 0.2055001110, 0.2796832919, 0.0000234785, 0.0001414400, 0.1101006642, 0.0000704714, -0.2734152675, 0.2067682743, 0.0746138021, -0.1432330310, 0.1039670482, 0.0014901687, 0.0299147516, 0.0001546776, -0.0000398437, 0.0779434443, 0.0000104181, 0.0000669436, -0.0630427301, -0.1282926351, -0.1863799244, 0.0787762552, -0.4791288078, 0.0000197259, -0.1729641855, 0.2375429571, -0.1382157952, -0.7546436191, -0.4540069103, 0.4708248377, 0.0000907356, 0.0025814183, 0.0020802468, 0.0030663945, 0.0000262770, 0.0000702352, -0.6521037221, -0.0001342832, -0.0026992606, -0.1239248440, -0.0054783565, -0.0090187909, 0.0010329224, -0.0519311540, -0.0002059632, -0.0000329962, -0.0001016665, -0.0002805926, 0.0000006151, -0.0000546440, -0.0000595905, -0.0019192337, 0.4527462423, -0.0020693950, 0.0005477436, 0.0000007514, 0.0425264686, 0.0014603892, -0.0027996488, -0.0009652931, 0.0010591219, -0.0001495788, 0.0002439630, -0.0362474136, 0.0027022876, 0.0043117600, -0.0000284241, 0.0000957626, 0.0010902123, 0.0003237505, 0.0000657880, -0.0062354389, -0.0554746278, 0.0009614594, -0.6488597989, -0.3559747040, -0.0497049242, 0.0001167373, 0.0001577344, -0.0008329517, 0.0000343466, -0.0004244322, 0.0000723670, -0.0015719925, 0.7717078924, 0.0001082789, -0.2458559573, -0.0000296867, 0.0040355278, -0.5281870365, -0.0034040862, -0.0023512042, -0.0012269595, -0.3419167101, 0.0000148757, -0.0015023150, -0.4076500237, -0.0000160237, -0.0000193308, -0.0000054744, -0.0000567108, 0.0000924245, -0.0013808468, 0.4908593297, -0.0013780768, -0.0225463044, 0.1122071818, -0.0006091974, 0.0003352593, -0.0002451371, -0.0001297345, 0.0026355230, -0.0000400034, 0.0000578621, -0.0025679336, 0.6403627396, 0.1042095199, 0.0450660959, 0.0042834631, 0.0001693283, -0.0034344129, 0.0005791357, 0.0012678009, 0.0073374789, 0.0346533097, 0.0008317933, -0.0001178070, 0.0000613422, 0.0001788014, -0.0000034457, 0.0000070678, -0.0000822829, 0.0000633408, -0.0000431171, -0.0002894808, 0.0000299535, -0.0000383586, -0.0001265070, 0.0000794188, -0.0001925601, 0.0001725776, 0.0002418540, 0.0001383998, -0.0000159486, 0.0000260985, 0.0001622252, -0.0000181294, 0.0002333170, 0.0000131579, -0.0000241527, 0.0001941001, 0.0001117630, 0.0001634806, 0.0000060946, 0.0001016274, -0.0000706599, -0.0000558376, 0.0001073906, 0.0000782684, -0.0030874629, 0.4808970094, 0.0269742236, -0.0000005851, -0.0003333934, -1.1699047089, 0.0000669848, 0.0679235086, 0.1527335942, -0.9556809068, -0.0005978395, 0.0528668314, -0.6736445427, -0.0279229637, -0.0000214234, -0.0000647654, 0.0768770203, 0.0000480485, 0.0001044762, 0.0068137888, 0.0091441302, -0.0319835134, -0.6128311753, 0.0042317710, 0.0000669542, -0.2063188702, 0.0046783080, 0.0001188209, -0.2684054673, -0.0361333005, 0.0303830076, -0.0000184046, -0.0000198335, -0.0000809767, -0.0001093733, 0.0000241085, 0.0002478638, 0.0000300433, 0.0002403204, -0.0002025430, -0.0002599782, -0.0009651420, 0.0001040134, 0.0001574847, -0.0003846604, 0.0001371488, 0.0000297145, 0.0000158862, 0.0003610883, -0.0000048108, 0.0001229251, 0.0001989727, -0.0001702344, -0.0001304224, 0.0007433080, 0.0002498336, 0.0002490853, 0.0000693035, 0.0003272451, -0.0000962422, -0.0000417434, -0.0000723347, -0.0002109325, 0.0000532908, -0.0017949992, 0.0031700754, 0.1088895425, -0.0000093267, 0.0001753215, -0.0044279406, 0.0001492222, -0.0003347368, -0.5991179943, -0.0058444403, -0.0032819866, 0.0010055357, -0.0019232649, 0.1284200698, -0.0000450713, -0.0001383219, -0.0013623242, 0.0000985605, 0.0001411083, -0.0035706179, -0.0013729507, 0.0838730410, 0.0026863061, 0.0078573516, -0.0000758544, 0.8707739115, 0.1222028658, -0.0023611942, -0.0030479142, 0.0510206893, -0.1107334867, -0.0000194909, -1.2735990286, 0.1721357107, 0.0023025461, 0.0000117634, 0.0000659396, 0.1388402879, 0.0000688843, -1.4803591967, -0.2248953879, 0.0490038358, -1.6578063965, 0.4104528129, -0.2407220006, 0.2647393048, 0.0000043413, 0.0000195352, 0.0005203959, 0.0000327596, -0.0000536195, -0.4930505455, 0.0001855196, -0.3593800068, -0.0033663607, 0.0075131338, 0.0000507151, -0.0044022934, 1.1914621592, -0.2232449651, -0.1787110716, 0.0024926080, 0.1410491318, 0.0000993641, 0.0427235030, 0.0026184525, 0.0044351965, 0.0000017526, -0.0000143055, 0.0040293755, -0.0000684054, -0.0055579422, 0.2544664443, 0.1133204326, -0.0419450998, 0.4343410134, -0.0309606511, 0.0459190905, 0.0000310702, 0.0001820826, 0.0213819724, 0.0000310151, 0.0000034453, -0.5130885839, 0.1003656387, 0.1378264725, -1.6061267853, 0.5516060591, -0.0000393059, -0.0022437926, 0.1469186842, 0.0469655097, -0.2093462348, 0.2966715395, 0.0008921911, 0.0000322339, -0.3473036289, -0.0076070828, -0.0035679757, -0.0000144832, -0.0001348462, -0.6122297049, 0.0000628378, -0.4208893776, 0.0023666257, -0.9684128165, -0.3107753396, 0.6818445921, -0.4458781183, 0.6275240779, 0.0000297669, 0.0000645987, 0.0053561176, -0.0000339249, -0.0001223983, -0.0002402030, 0.1040527895, 0.1597265601, 0.0183274448, 0.0015372731, -0.0000301320, -0.0075548775, -0.0088763740, 0.0063162404, -0.0885069370, 0.0067704106, 0.0018612854, -0.0001181279, 0.0002165039, 0.0001161336, 0.0000874179, -0.0000399540, -0.0000695342, 0.0000036590, -0.0001351851, 0.0000310482, -0.0000359699, 0.0000154938, -0.0001000817, -0.0000794408, -0.0000437479, 0.0000439326, 0.0000294349, -0.0000629607, -0.0001724833, 0.0000141590, -0.0000659757, 0.0000145197, -0.0000407062, 0.0000138968, -0.0000961734, 0.0000375865, 0.0001572184, -0.0002316914, 0.0001053021, -0.0000581315, -0.0000434742, 0.0001241310, 0.0001222079, 0.0000232157, -0.0002531428, 0.0013385949, 0.4630302191, -0.0000138600, -0.0001468266, -0.0017607883, -0.0000198783, -0.0007376074, -0.0136967022, 0.0017158323, -0.0022902905, 0.0017214041, -0.3836532235, 0.0012370679, -0.0000791363, -0.0001614779, 0.0010573413, 0.0000308027, -0.0002675375, 0.0010147566, 0.0007603704, 0.0800328404, -0.0502236001, 0.0058172001, -0.0000681639, 0.0010072900, 0.0030028818, -0.0007207051, -0.0015395059, -0.0001962341, 0.0009484693, 0.0000800784, 0.0027349722, -0.0010127022, 0.0018946263, -0.0000815635, 0.0000891476, 0.3365616202, -0.0001279966, 0.0160126109, -0.0881672427, 0.3454695940, 0.0033691253, -0.1714153737, 0.3103238642, -0.1494914293, 0.0000496467, -0.0000320443, 0.0000075254, 0.0001931085, -0.0001287081, 0.0053776493, -0.0012756594, 0.0008798689, 0.5777795315, 0.0001676251, 0.0000901190, -0.0001598181, -0.1161331236, 0.0011233966, 0.4110930860, -0.0013594752, 0.0008142233, -0.0000309472, -0.0007444505, 0.0005179524, 0.0008647161, 0.0000394609, -0.0000017637, 0.0000931949, -0.0000260321, -0.0005867966, 0.0957730189, -0.0001603804, -0.0002066761, -0.0008260883, 0.0000049652, 0.0001434701, -0.0000188469, 0.0001738398, 0.0001034362, 0.0000254081, -0.0001732410, -0.0002159684, -0.0004203895, 0.0005033924, -0.0000731399, -0.0003563516, -0.0001195605, 0.0018974426, -0.0000443484, -0.0005281664, 0.0006820680, 0.0001619370, -0.0012087321, -0.0002004965, 0.1097554639, 0.0039643510, -0.0007801410, -0.0000944404, -0.0003543174, 0.0000473817, -0.0000215055, 0.0001157289, -0.0043311263, -0.0114004165, 0.0039139823, -0.0010036265, 0.0051578088, -0.0027105180, 0.0000709134, 0.0000625322, 0.0002919227, 0.0000766768, 0.0002049468, 0.0014904982, -0.0381121822, -0.4204560816, 0.0106861396, 0.0013344819, 0.0002006901, 0.0018473619, -0.0006038867, -0.0035064693, 0.0020606078, -0.0009984288, 0.2964053750, 0.0000380810, 0.0000187201, -0.0001296171, 0.0000663713, -0.0000407388, -0.0000343087, -0.0000910909, 0.0000028786, 0.0001821317, 0.0000316082, 0.0000107961, 0.0001129353, -0.0000028435, 0.0000668760, -0.0000169740, 0.0002396958, 0.0000783186, -0.0002130181, -0.0000682454, -0.0002104029, -0.0000061666, 0.0000089579, 0.0000380836, 0.0000179042, -0.0001080826, -0.0000201638, -0.0000627757, 0.0000023506, -0.0001152526, -0.0000078448, 0.0001727995, 0.0000931744, 0.0002491344, 0.1192330047, 0.1154239103, -0.0001071509, -0.0000324579, 0.0001357558, -0.0014321146, 0.0001044268, 0.0030339337, 0.0321408436, 0.0008592879, 0.0001851899, 0.0005250620, -0.0049514482, -0.2433713228, -0.0001577637, 0.0001186500, 0.0007272800, -0.0000047139, -0.0000156771, 0.0017062457, -0.5698488951, -0.9746086597, 0.0051654945, -0.0002107380, -0.0000064977, 0.0011042160, 0.0012356248, -0.0174320173, 0.0017964047, 0.0004740528, 0.2705147266, 0.0000578415, -0.0001076800, -0.0000023345, -0.0000130247, 0.0000722433, 0.0000434087, 0.0001714729, -0.0000215749, -0.0000828616, -0.0000999030, -0.0000177845, -0.0002463607, 0.0000270932, 0.0000305757, -0.0001326401, -0.0000207391, -0.0002454267, -0.0000300796, -0.0000416617, 0.0000903072, -0.0002443265, -0.0000288436, 0.0000014911, 0.0002475421, 0.0000088938, 0.0000802528, 0.0000058631, 0.0000923953, -0.0000358054, -0.0000235321, -0.0000628427, -0.0001199743, -0.0000059590, 0.0302962512, 0.1543673873, 0.0245370343, -0.0236663073, -0.0000967204, 0.0382285193, -0.0000026930, -0.4222422242, -0.2233724743, -0.0035680397, -0.0887534618, 0.5425286293, 0.0040164287, 0.6521596909, 0.0000067641, 0.0000698872, 0.0502250083, 0.0000722969, -0.0000677246, -0.2546076477, -0.0593636073, -0.0014694002, 0.0011743789, 0.0034415666, -0.0000660822, 0.3103210628, 0.1805210263, -0.1308243424, -0.0537732653, 0.1012297869, -0.0006218494, 0.0000288443, 0.0052609192, -0.6223769188, 0.0890771747, 0.0000011084, -0.0000109990, 0.3862646222, 0.0000780923, 0.0039300653, -0.2674041986, 0.2466123253, 0.0042302147, -0.0087829577, 0.4990248084, -0.0360712074, -0.0001975747, 0.0002775603, 0.0009067348, 0.0000115185, 0.0000048639, 0.0047522509, 0.3150592446, 0.7227991819, 0.7085529566, 0.0621072240, -0.0000686238, -0.0010218736, -0.0003264731, 0.1402816027, 0.2046690583, 0.0000518679, -0.0009579785, -0.0000905841, -0.0010564094, -0.0024372006, -0.2448160350, -0.0000292264, 0.0000330135, 0.0762608647, -0.0000645461, 0.4973803461, 0.0289098192, 0.2641135156, 0.2415234298, -0.0023220712, 0.0026322724, -0.0040508127, -0.0000340816, 0.0000147592, -0.0684946626, 0.0000391315, -0.0002365695, 0.1682203412, 0.0012171739, 0.0029167698, 0.2882541418, -0.0066628684, -0.0000391272, -0.2340115309, -0.4630765617, 0.0036900514, 0.0922228619, 0.0009845757, 0.0004394466, -0.0000218621, -0.0006340647, 0.0017149337, -1.8496577740, 0.0000088024, -0.0000545684, 0.0069235549, 0.0000620623, 0.3978962302, -0.0010997603, -0.0052205278, 0.0003196331, -0.0007522238, 0.0053683538, -0.0023521699, 0.0001177435, -0.0000568019, -0.0015085245, 0.0000581648, -0.0001329908, 0.0019331318, 0.0009781740, -0.0002809968, 0.0020582012, 0.0133459819, 0.0000050259, -0.0055209347, -0.0003833712, -0.0003649970, 0.1397870481, 0.0277376696, 0.0001498441, 0.0001431622, -0.0032610563, -0.0001092312, 0.0000273756, -0.0000445981, 0.0000768194, -0.0030229192, 0.0000248328, -0.0005610174, 0.4042882919, -0.0063423784, -0.0024459499, 0.0202571116, 0.0021308062, -0.0738044754, -0.0000417459, -0.0000745475, -0.0003480986, -0.0000289363, 0.0001800979, -0.0000309833, -0.0005387013, -0.0500153564, 0.0048859487, -0.0006244259, -0.0002438697, -0.0000927402, 0.0092107579, -0.0000314553, -0.8339275122, -0.0051443479, 0.0986345932, -0.0000327920, -0.0000282426, -0.0002532330, -0.0015308900, -0.0000729444, -0.0000794026, 0.0000980416, -0.0001480295, 0.0008081790, -0.0058519603, -0.0021955566, 0.0028052458, -0.0007815855, 0.0011330598, -0.0008493821, 0.0002506245, 0.0000324373, 0.0000397634, -0.0001939621, 0.0001040133, 0.0011675208, -0.0003297649, 0.0000357633, 0.0025429851, -0.0003025909, 0.0000141404, 0.0006569297, 0.0001378190, -0.0001099308, 0.0016437026, 0.0002866734, -0.0002709721, -0.0000300308, -0.0021263892, 0.1473699212, 0.2322220951, 0.0000055898, 0.0001922502, 0.4634381831, -0.0001209684, 0.2448890358, 0.0000838737, 0.5339435339, 0.3431230187, -0.0121642035, 0.0023228605, -0.2094876170, 0.0001595637, -0.0000880586, -0.0005739556, 0.0000353360, -0.0002565707, 0.3695673943, -0.1968247145, 0.0018234014, 0.2372793108, -0.6227384806, 0.0000424323, 0.3064832389, -0.0817756355, -0.0404430404, 0.7850736976, -0.1874222904, 0.0397719108, -0.0000648086, 0.0149456523, 0.0021413029, 0.0009211228, -0.0000642194, -0.0000979012, 0.3935625553, -0.0000295475, -0.0019784069, 0.1689191759, 0.0821011290, 0.0023550924, 0.0010845921, 0.5696538687, 0.0003265689, 0.0000208344, -0.0002355385, 0.0007402053, 0.0000283024, -0.0001395471, -0.3928088546, -0.0012345624, -0.0297111832, -1.1225596666, 0.0956786573, -0.0000280490, -0.0026225182, 0.0035492743, -0.0032705746, -0.0128832478, 0.1218927130, 0.0012411514, 0.0000133972, 0.0002124963, 0.0000677840, -0.0000287482, -0.0000846355, -0.0001121207, 0.0000506757, 0.0000904238, 0.0000436657, 0.0000685462, 0.0001312549, -0.0000369170, -0.0000319105, 0.0000316584, 0.0000414864, -0.0000474346, 0.0000345643, -0.0001699111, -0.0000687151, -0.0001491429, -0.0000517767, -0.0001311051, -0.0000982428, 0.0000413038, 0.0000491766, -0.0001539073, -0.0001184004, 0.0001734700, -0.0000173779, 0.0000662553, 0.0000109340, 0.0001017538, 0.0000632338, -0.0053671701, 0.1443056017, 0.0020766265, 0.0000148539, -0.0000359115, -0.3865677118, 0.0000848582, 0.0028308257, 0.0300673116, -1.2889852524, 0.0981977060, 0.0008827646, 0.0028093259, -0.0010020254, -0.0000394163, -0.0000898983, -0.0010024125, 0.0000259910, 0.0001119522, -0.0002748141, -0.0005473979, 0.0013645294, 0.0016614685, -0.0007233176, 0.0000049995, 0.0489133224, -0.0014251244, -0.0005716950, -0.0471275188, -0.1031372622, -0.0018990603, 0.0001905024, -0.0000195593, 0.0000208374, -0.0000004884, 0.0001691198, 0.0002487162, 0.0000693881, -0.0000279404, -0.0002515599, -0.0000126407, 0.0000479688, -0.0000121703, -0.0000388833, -0.0000206002, 0.0000797777, 0.0001990040, -0.0001022186, 0.0002518452, 0.0000392556, 0.0000325545, -0.0000301487, 0.0000247834, -0.0000252115, -0.0000173203, -0.0000805290, 0.0000898561, 0.0000142545, -0.0000159168, -0.0000119204, -0.0000779282, 0.0000119826, -0.0000195362, 0.0000235036, 0.0015027663, -0.0026670627, -0.7733014822, 0.0000459438, -0.0001060798, 0.0021922858, -0.0000699051, 0.2058193684, -0.0047261622, -0.0056444970, 0.0019283467, -0.0037633046, -0.1184977069, -0.0024387434, 0.0001534326, -0.0000410033, -0.0003201283, 0.0000747360, 0.0001466615, 0.0027552564, 0.2929819226, 0.5406240821, -0.3486976326, 0.0040441584, 0.0000076872, -0.0016725371, -0.0820162669, 0.2209878862, 0.3890962899, 0.5038581491, -0.0545688830, 0.0000150806, 0.0000695484, -0.0002481544, -0.0000145203, -0.0000272632, -0.0001582839, 0.0001988310, 0.0002003236, -0.0000219012, -0.0000715815, 0.0000330403, -0.0000690770, 0.0000682882, 0.0000125152, 0.0000279404, 0.0000712533, -0.0000173763, -0.0000701776, -0.0000331151, -0.0000803306, 0.0000158066, 0.0000701242, -0.0000262233, 0.0000473371, 0.0001119692, -0.0000071018, 0.0002439913, -0.0000193191, 0.0000051959, -0.0000333242, 0.0000176525, -0.0000378029, -0.0000102282};
#endif

#endif
